{
    "io": [5, 2],
    "l": [
        {
            "w": [
                [
                    0.6686806742017946, 0.004602678927997594, -0.22022681713741532, -0.4346282768728944,
                    0.973277080574567
                ],
                [0.7335550758033995, 0.3489350479742577, -0.8062635913789578, 0.8187048457699375, 0.4933958790530881],
                [0.49452565590297626, 0.7227838054371372, -0.4906016625302123, 0.355636417767879, 0.45490320898276604],
                [-0.4139818281488843, 0.5759490062488757, 0.25717217355218625, 0.8910217461837737, 0.49875507186172463],
                [-0.06102318510798099, 0.5397558270233644, 0.42997823983631034, 0.7019797780311384, 0.339447932384936],
                [-0.3965399157253504, -0.046283190088608706, 0.6853636791502976, 0.8036628440493483, 0.633591148094121],
                [
                    0.15051427904100168, 0.5187813045732028, -0.29627560526959984, 0.6961155915815513,
                    0.32849617632064154
                ],
                [0.3868797347445274, 0.38225910725622114, -0.919616394359863, 0.03403097296771884, 0.07599402188239157],
                [-0.4260391550250495, 0.6844179847640084, 0.40879396605165663, 0.1823873413380901, -0.7166683605790345],
                [0.6517051164666245, 0.15964898769834202, -0.581706894041627, -0.6199191647904461, 0.2427858358688071]
            ],
            "b": [
                -0.4583672040134381, -0.6561514256096745, -0.04440536694538766, -0.41775353442721963,
                -0.9052531151416536
            ]
        },
        {
            "w": [
                [0.36566195822178527, -0.6041261662222674, 0.8506624278910092, 0.8542747820743402, -0.5618600472342457],
                [
                    -0.9833031566595881, -0.7484933472352995, -0.7641025835641049, 0.1378893103936898,
                    -0.5772560298954774
                ],
                [
                    0.5303419570857271, -0.6670246428081614, 0.25946766514500186, -0.6025554207940745,
                    0.15622933834433228
                ],
                [0.8394304237343566, 0.18989298117201203, 0.985164058532968, -0.05891081864641112, 0.3356960234962445],
                [-0.3534017390320079, -0.2929974039343035, 0.7437283616120154, 0.45332604581072466, 0.7750541027639941],
                [
                    -0.9809477375686528, 0.8573122065947025, -0.8952307904268242, -0.052470064148529616,
                    0.2462057877643704
                ],
                [
                    0.12693463913486314, -0.9743754742834931, -0.38834861182088876, -0.1740047589731053,
                    0.1559728178467642
                ],
                [0.9108467622944922, 0.8656248306816821, 0.5921753628888888, -0.07102182401451396, -0.7747335254879775]
            ],
            "b": [-0.2645928994011224, 0.95460921061215, -0.6929563252630739, 0.700636152947649]
        },
        {
            "w": [
                [-0.3202311680816806, -0.18030591623648462, 0.7495677083684371, 0.7480679534874439],
                [0.211960460120741, 0.06919593757808906, -0.578093254953512, 0.3275871492964568],
                [0.2206864392512915, -0.2515768016552018, -0.12738617112861483, -0.9304727980787697],
                [0.40977783793688793, 0.16905144715192755, -0.14445888144930996, -0.8974803051449718],
                [-0.5399487582912754, -0.7278724048833598, 0.021140957728975618, 0.571632960151764],
                [0.8030277912849222, -0.49749483196921185, -0.38845159778089977, -0.4319321451354683],
                [0.8184242811888303, -0.9972831683726944, 0.9616929205395937, 0.4278286225259862],
                [0.7700685703109102, 0.37952134457919007, -0.5771535894809654, -0.21761014807666568]
            ],
            "b": [0.08522769886532755, 0.30373697063493976, -0.5164284539137376, 0.5342031413674624]
        },
        {
            "w": [
                [-0.06561310043843727, 0.9290292244509494, 0.8499770685678958, -0.0383908939190204],
                [0.5094722126295879, -0.6480778240568772, 0.4417899443699187, 0.9180596769071436],
                [0.309135655521672, 0.26665226798646147, 0.556979052853166, 0.22294336948302984],
                [0.5588706248342867, 0.07789137734605678, 0.9810779296351464, 0.814298291579493],
                [0.9543185003494887, -0.5806090462014368, -0.992774531808581, 0.656206424377161],
                [-0.34575299352179023, 0.029214461584118556, 0.5319898861631279, -0.036996398179999446]
            ],
            "b": [0.1409499050933154, 0.6912658646065375, -0.3445780038992883]
        },
        {
            "w": [
                [-0.9196257869826092, 0.8801366377359603, 0.7867300792788332],
                [-0.44513170130759416, 0.5409067632072264, -0.7957387938041558],
                [-0.5409146759824259, 0.45812260618632594, 0.7623339611632924],
                [0.9493018712000607, -0.5858997878690118, -0.47766696070840053]
            ],
            "b": [0.3224212984495338, 0.9582775017991758]
        }
    ]
}
