{
    "io": [5, 2],
    "l": [
        {
            "w": [
                [
                    -0.3858555500236127, 0.042406738946404676, -0.6084289607269024, -0.6645067655399406,
                    0.5881890837564052
                ],
                [
                    -0.9124021729853435, -0.6281361729816757, 0.42636160758264463, 0.8096583992389261,
                    -0.006388144453432609
                ],
                [
                    -0.3816943544347673, 0.6600868445518437, 0.09456827422957037, 0.05118700760815331,
                    -0.6877440983094143
                ],
                [
                    0.9182699518160855, 0.4958013119462117, -0.23238225956860337, -0.5327639812852034,
                    -0.6601432691697982
                ],
                [0.8106021802515344, -0.3381768232526081, 0.18128446141550425, 0.956344658433109, 0.40607640021944835],
                [0.8192027764253029, -0.9598435658280859, 0.2701667094838456, -0.6312216441020708, 0.5882266228280719],
                [0.3241608860018208, 0.6473578670182611, 0.7757207387200133, 0.4428399887135255, 0.33637665297425334],
                [-0.2885638990527526, 0.5338895807806665, 0.9538734903285562, 0.283837700357886, -0.5693117590393495],
                [
                    -0.24440742678766458, -0.7179163810326372, 0.6138600206423388, -0.048489433470257026,
                    -0.783615904933685
                ],
                [
                    -0.42002769534211293, -0.4128291358694596, -0.8945472124774927, -0.43087123469005784,
                    -0.737140085537106
                ]
            ],
            "b": [-0.4725567371730315, -0.5502299837303477, -0.8688885170516119, -0.588906737259292, 0.3059042724243537]
        },
        {
            "w": [
                [
                    0.7837924729075878, -0.971872058441523, -0.06367264681061213, -0.45114536396878835,
                    -0.9869250802252343
                ],
                [
                    0.14935680194529288, -0.18658447760445185, 0.03799736487606564, 0.07604179296750857,
                    -0.48643248076328094
                ],
                [
                    -0.1334813470699454, -0.48141064008921264, -0.1402024603195109, -0.6001884646178399,
                    -0.38151429403487214
                ],
                [
                    0.34407635037865214, 0.6818516742446308, -0.18466017854586214, 0.0016294114134272064,
                    0.8371150524418494
                ],
                [
                    0.7201216989619859, 0.28116181290998554, -0.6925121913297416, 0.46143845566732233,
                    -0.7591548633122867
                ],
                [0.21460252882439645, 0.19227912760385024, -0.5583395404506764, 0.568605759052113, 0.1261304322586687],
                [
                    0.7453075717604816, -0.7619785506233687, -0.8752627830026154, -0.014902726195073157,
                    -0.19421193863352215
                ],
                [-0.7044386296501837, 0.9389631104393787, 0.9478550298671777, 0.35858671050861624, 0.678466441468748]
            ],
            "b": [0.9225117260675026, 0.642714982814796, 0.8487514936835043, -0.2342235176930898]
        },
        {
            "w": [
                [0.5693450516456906, 0.3313045180776939, -0.10534714158099945, -0.6496853937982778],
                [0.9872926772052844, -0.6931884383759521, -0.07959874269051515, -0.7709156723261765],
                [-0.0243100929136002, 0.2740601921891246, -0.17273266047224833, -0.5706746615332117],
                [-0.5906094504134138, -0.5975024242952425, 0.6931862527042503, -0.6161027307510984],
                [-0.4524090181173239, 0.5880088893450113, -0.7015298200982758, 0.734830427424634],
                [0.5454984287796574, 0.11874093574765121, 0.5592929250226333, -0.8659497857565146],
                [0.8725979859565101, -0.07943378826657543, -0.9921098692336519, -0.08759021747954021],
                [-0.4414667610929306, 0.4944371106046601, 0.431707933043012, 0.5508389012334787]
            ],
            "b": [-0.9571591631605965, -0.03905852821305489, 0.5756046099949383, 0.03159814202253397]
        },
        {
            "w": [
                [0.6054864358145617, 0.24901924472508785, 0.968758268627949, -0.8690151096245029],
                [-0.15905629901628782, 0.23420474548131454, -0.11669909273730994, -0.37314063604955816],
                [0.36862076633423024, 0.20638856801299754, 0.3636485596947008, -0.06970089306228822],
                [-0.679731001379237, 0.8336349980327187, -0.23748930932361434, -0.1590488250023694],
                [-0.7066983732244148, -0.1111108661512934, -0.15738028326026132, -0.7033523918165456],
                [0.15716668426586944, 0.9755142454359245, -0.6074260817976018, 0.5941789177452863]
            ],
            "b": [-0.6953286312178837, 0.9637897267370645, -0.30382239376840703]
        },
        {
            "w": [
                [-0.7524576634253353, 0.5965774820583718, 0.3669847222440983],
                [-0.7555564661301752, -0.5628920735187846, -0.07376924324346001],
                [0.16362173606331032, 0.45058538086889, 0.7663776420739854],
                [0.08335037634046172, -0.9554025111466076, -0.24176098585358607]
            ],
            "b": [0.7834356077590265, -0.5164227283809169]
        },
        {
            "w": [
                [0.4246356490569503, -0.8529895776171728],
                [-0.06928209618906811, -0.3147270211200648],
                [0.28044946926151804, 0.6888018355690879],
                [0.8985997895264171, 0.37799002398087245]
            ],
            "b": [0.5609389873727082, -0.6209927590016822]
        },
        {
            "w": [
                [
                    0.6686806742017946, 0.004602678927997594, -0.22022681713741532, -0.4346282768728944,
                    0.973277080574567
                ],
                [0.7335550758033995, 0.3489350479742577, -0.8062635913789578, 0.8187048457699375, 0.4933958790530881],
                [0.49452565590297626, 0.7227838054371372, -0.4906016625302123, 0.355636417767879, 0.45490320898276604],
                [-0.4139818281488843, 0.5759490062488757, 0.25717217355218625, 0.8910217461837737, 0.49875507186172463],
                [-0.06102318510798099, 0.5397558270233644, 0.42997823983631034, 0.7019797780311384, 0.339447932384936],
                [-0.3965399157253504, -0.046283190088608706, 0.6853636791502976, 0.8036628440493483, 0.633591148094121],
                [
                    0.15051427904100168, 0.5187813045732028, -0.29627560526959984, 0.6961155915815513,
                    0.32849617632064154
                ],
                [0.3868797347445274, 0.38225910725622114, -0.919616394359863, 0.03403097296771884, 0.07599402188239157],
                [-0.4260391550250495, 0.6844179847640084, 0.40879396605165663, 0.1823873413380901, -0.7166683605790345],
                [0.6517051164666245, 0.15964898769834202, -0.581706894041627, -0.6199191647904461, 0.2427858358688071]
            ],
            "b": [
                -0.4583672040134381, -0.6561514256096745, -0.04440536694538766, -0.2920494615647974, -0.9052531151416536
            ]
        },
        {
            "w": [
                [0.36566195822178527, -0.6041261662222674, 0.8506624278910092, 0.8542747820743402, -0.5618600472342457],
                [
                    -0.9833031566595881, -0.7484933472352995, -0.7641025835641049, 0.1378893103936898,
                    -0.5772560298954774
                ],
                [
                    0.5303419570857271, -0.6670246428081614, 0.25946766514500186, -0.6025554207940745,
                    0.15622933834433228
                ],
                [0.8394304237343566, 0.18989298117201203, 0.985164058532968, -0.05891081864641112, 0.3356960234962445],
                [-0.3534017390320079, -0.2929974039343035, 0.7437283616120154, 0.45332604581072466, 0.7750541027639941],
                [
                    -0.9809477375686528, 0.8573122065947025, -0.8952307904268242, -0.052470064148529616,
                    0.2462057877643704
                ],
                [
                    0.12693463913486314, -0.9743754742834931, -0.38834861182088876, -0.1740047589731053,
                    0.1559728178467642
                ],
                [0.9108467622944922, 0.8656248306816821, 0.5921753628888888, -0.07102182401451396, -0.7747335254879775]
            ],
            "b": [-0.2645928994011224, 0.1477197643378001, -0.6929563252630739, 0.700636152947649]
        },
        {
            "w": [
                [-0.3202311680816806, -0.18030591623648462, 0.7495677083684371, 0.7480679534874439],
                [0.211960460120741, 0.06919593757808906, -0.578093254953512, 0.3275871492964568],
                [0.2206864392512915, -0.2515768016552018, -0.12738617112861483, -0.9304727980787697],
                [0.40977783793688793, 0.16905144715192755, -0.14445888144930996, -0.8974803051449718],
                [-0.5399487582912754, -0.7278724048833598, 0.021140957728975618, 0.571632960151764],
                [0.8030277912849222, -0.49749483196921185, -0.38845159778089977, -0.4319321451354683],
                [0.8184242811888303, -0.9972831683726944, 0.9616929205395937, 0.4278286225259862],
                [0.7700685703109102, 0.37952134457919007, -0.5771535894809654, -0.21761014807666568]
            ],
            "b": [0.08522769886532755, 0.30373697063493976, -0.5164284539137376, 0.6407623813615134]
        },
        {
            "w": [
                [-0.06561310043843727, 0.9290292244509494, 0.8499770685678958, -0.0383908939190204],
                [0.5094722126295879, -0.6480778240568772, 0.4417899443699187, 0.9180596769071436],
                [0.309135655521672, 0.26665226798646147, 0.556979052853166, 0.22294336948302984],
                [0.5588706248342867, 0.07789137734605678, 0.9810779296351464, 0.814298291579493],
                [0.9543185003494887, -0.5806090462014368, -0.992774531808581, 0.656206424377161],
                [-0.34575299352179023, 0.029214461584118556, 0.5319898861631279, -0.036996398179999446]
            ],
            "b": [0.1409499050933154, 0.6912658646065375, -0.3445780038992883]
        },
        {
            "w": [
                [-0.9196257869826092, 0.8801366377359603, 0.7867300792788332],
                [-0.44513170130759416, 0.5409067632072264, -0.7957387938041558],
                [-0.5409146759824259, 0.45812260618632594, 0.7623339611632924],
                [0.9493018712000607, -0.5858997878690118, -0.47766696070840053]
            ],
            "b": [0.1900700183665044, 0.9582775017991758]
        }
    ]
}
